{
  "sizes": [
    105,
    1
  ],
  "activations": [
    "tanh"
  ],
  "params": {
    "W1": [
      [
        0.33130744099617004,
        -0.38893866539001465,
        -0.4611778259277344,
        -0.7370360493659973,
        -0.14479182660579681,
        0.16440844535827637,
        0.7345560193061829,
        -0.3635087311267853,
        0.35917210578918457,
        0.6745797991752625,
        -0.10575211048126221,
        0.1857224553823471,
        0.7627764344215393,
        -0.5217624306678772,
        0.5436192750930786,
        0.27525222301483154,
        0.7711446285247803,
        -0.6318686008453369,
        1.658981204032898,
        -0.009941376745700836,
        -0.4313986599445343,
        -0.7518619298934937,
        0.116849884390831,
        1.2262067794799805,
        -0.7208114266395569,
        -0.8127649426460266,
        0.7235296964645386,
        0.42322665452957153,
        0.8756855726242065,
        0.36346369981765747,
        1.4816713333129883,
        0.8598936796188354,
        -0.45858973264694214,
        0.8456342220306396,
        1.1300829648971558,
        0.2960021197795868,
        0.7228425145149231,
        0.8787531852722168,
        -0.271857351064682,
        0.19740107655525208,
        -0.715975284576416,
        0.01687980443239212,
        -0.38239583373069763,
        0.6801034212112427,
        -0.5094025731086731,
        -0.23346389830112457,
        -0.6747731566429138,
        -0.4185091555118561,
        0.15829429030418396,
        -0.2993744909763336,
        -0.36318448185920715,
        -0.3774074912071228,
        -1.0167198181152344,
        -0.2320328652858734,
        0.07794197648763657,
        -0.04790155589580536,
        1.0542082786560059,
        0.22020451724529266,
        -0.2736888527870178,
        0.9115813374519348,
        -0.04499557241797447,
        0.2879335284233093,
        0.6085618734359741,
        0.5620803833007812,
        -0.36715877056121826,
        -0.9415163397789001,
        -0.4175448715686798,
        0.470588743686676,
        -0.032617371529340744,
        0.051627516746520996,
        0.017324700951576233,
        0.047027867287397385,
        -0.20913073420524597,
        0.26308998465538025,
        -0.477925568819046,
        0.0595683753490448,
        0.28817734122276306,
        0.5990554690361023,
        0.13260981440544128,
        -0.39587265253067017,
        -0.595694363117218,
        0.5511364936828613,
        -0.7397148013114929,
        0.08049628138542175,
        -0.4586610794067383,
        0.5332038998603821,
        0.8988589644432068,
        -0.22241657972335815,
        0.78803950548172,
        -0.24883359670639038,
        0.7134221196174622,
        0.4490419328212738,
        0.4582504332065582,
        -0.5831272602081299,
        -0.7592430114746094,
        -0.13052278757095337,
        -0.5892326831817627,
        0.8213621377944946,
        -0.7011446952819824,
        -0.8857735395431519,
        0.04476771131157875,
        -0.28944602608680725,
        0.8431682586669922,
        -0.5797880291938782,
        -0.12658630311489105
      ]
    ],
    "b1": [
      -0.14969876408576965
    ]
  }
}