{
  "sizes": [
    105,
    1
  ],
  "activations": [
    "tanh"
  ],
  "params": {
    "W1": [
      [
        0.34302499890327454,
        -0.48894739151000977,
        -0.4746154844760895,
        -0.7557554841041565,
        -0.2447713166475296,
        0.2593550682067871,
        0.7687951326370239,
        -0.37664011120796204,
        0.4543974697589874,
        0.7039422988891602,
        -0.06544278562068939,
        -0.06280568987131119,
        0.7619866728782654,
        -0.5877304077148438,
        0.46895337104797363,
        0.32749229669570923,
        0.7262949347496033,
        -0.655861496925354,
        1.3749498128890991,
        -0.04015052691102028,
        -0.4330313503742218,
        -0.7967116236686707,
        0.1057811751961708,
        0.9421755075454712,
        -0.7211446166038513,
        -0.846436619758606,
        0.5334319472312927,
        0.4252750873565674,
        0.9072110056877136,
        0.364167720079422,
        1.3505162000656128,
        0.857435941696167,
        -0.46151429414749146,
        0.8372498154640198,
        0.9336580038070679,
        0.15067575871944427,
        0.706224262714386,
        0.8531749844551086,
        -0.2886194884777069,
        0.17168475687503815,
        -0.733597457408905,
        0.0462200790643692,
        -0.40330061316490173,
        0.6554920673370361,
        -0.5351414680480957,
        -0.25107917189598083,
        -0.7510088682174683,
        -0.48962050676345825,
        0.10527662932872772,
        -0.19435466825962067,
        -0.3985287845134735,
        -0.46759140491485596,
        -1.0100551843643188,
        -0.23541852831840515,
        0.08570127934217453,
        -0.06250083446502686,
        1.0163114070892334,
        0.22524765133857727,
        -0.3085080683231354,
        0.778400719165802,
        -0.033919140696525574,
        0.3516116440296173,
        0.5196396112442017,
        0.5539746284484863,
        -0.2653459906578064,
        -0.9495781660079956,
        -0.2636292576789856,
        0.36539745330810547,
        0.029657995328307152,
        0.004383898805826902,
        0.01793733425438404,
        0.05291154980659485,
        -0.2330506294965744,
        0.2468308061361313,
        -0.5132598280906677,
        0.04806387051939964,
        0.3044385612010956,
        0.5292371511459351,
        0.0626940131187439,
        -0.3851155638694763,
        -0.6723405718803406,
        0.618596613407135,
        -0.779762864112854,
        0.04962380602955818,
        -0.4521269202232361,
        0.5967578887939453,
        0.9101349711418152,
        -0.2557779550552368,
        0.8296624422073364,
        -0.2685203552246094,
        0.718916654586792,
        0.5128305554389954,
        0.42821067571640015,
        -0.5634093880653381,
        -0.7633330225944519,
        -0.11695308983325958,
        -0.6036399006843567,
        0.8153185248374939,
        -0.6946455836296082,
        -0.8888264298439026,
        0.08392713218927383,
        -0.24694311618804932,
        0.8137800693511963,
        -0.5940573215484619,
        -0.1620226949453354
      ]
    ],
    "b1": [
      -0.12038039416074753
    ]
  }
}